digraph Tree {
node [shape=box] ;
0 [label="src_bytes <= 15040.0\ngini = 0.072\nsamples = 64293\nvalue = [2407, 61886]"] ;
1 [label="dst_host_same_srv_rate <= 0.285\ngini = 0.007\nsamples = 62092\nvalue = [206, 61886]"] ;
0 -> 1 [labeldistance=2.5, labelangle=45, headlabel="True"] ;
2 [label="dst_host_count <= 53.5\ngini = 0.085\nsamples = 203\nvalue = [194, 9]"] ;
1 -> 2 ;
3 [label="gini = 0.0\nsamples = 9\nvalue = [0, 9]"] ;
2 -> 3 ;
4 [label="gini = 0.0\nsamples = 194\nvalue = [194, 0]"] ;
2 -> 4 ;
5 [label="dst_host_srv_serror_rate <= 0.6\ngini = 0.0\nsamples = 61889\nvalue = [12, 61877]"] ;
1 -> 5 ;
6 [label="same_srv_rate <= 0.265\ngini = 0.0\nsamples = 61884\nvalue = [7, 61877]"] ;
5 -> 6 ;
7 [label="gini = 0.0\nsamples = 1\nvalue = [1, 0]"] ;
6 -> 7 ;
8 [label="src_bytes <= 7783.0\ngini = 0.0\nsamples = 61883\nvalue = [6, 61877]"] ;
6 -> 8 ;
9 [label="root_shell <= 0.5\ngini = 0.0\nsamples = 61879\nvalue = [4, 61875]"] ;
8 -> 9 ;
10 [label="gini = 0.0\nsamples = 61861\nvalue = [0, 61861]"] ;
9 -> 10 ;
11 [label="src_bytes <= 116.5\ngini = 0.346\nsamples = 18\nvalue = [4, 14]"] ;
9 -> 11 ;
12 [label="gini = 0.0\nsamples = 4\nvalue = [4, 0]"] ;
11 -> 12 ;
13 [label="gini = 0.0\nsamples = 14\nvalue = [0, 14]"] ;
11 -> 13 ;
14 [label="rerror_rate <= 0.085\ngini = 0.5\nsamples = 4\nvalue = [2, 2]"] ;
8 -> 14 ;
15 [label="gini = 0.0\nsamples = 2\nvalue = [0, 2]"] ;
14 -> 15 ;
16 [label="gini = 0.0\nsamples = 2\nvalue = [2, 0]"] ;
14 -> 16 ;
17 [label="gini = 0.0\nsamples = 5\nvalue = [5, 0]"] ;
5 -> 17 ;
18 [label="gini = 0.0\nsamples = 2201\nvalue = [2201, 0]"] ;
0 -> 18 [labeldistance=2.5, labelangle=-45, headlabel="False"] ;
}